<?xml version="1.0"?>
<opencv_storage>
<cascade>
  <stageType>BOOST</stageType>
  <featureType>LBP</featureType>
  <height>29</height>
  <width>21</width>
  <stageParams>
    <boostType>GAB</boostType>
    <minHitRate>9.9500000476837158e-001</minHitRate>
    <maxFalseAlarm>5.0000000000000000e-001</maxFalseAlarm>
    <weightTrimRate>9.4999998807907104e-001</weightTrimRate>
    <maxDepth>1</maxDepth>
    <maxWeakCount>100</maxWeakCount></stageParams>
  <featureParams>
    <maxCatCount>256</maxCatCount>
    <featSize>1</featSize></featureParams>
  <stageNum>14</stageNum>
  <stages>
    <!-- stage 0 -->
    <_>
      <maxWeakCount>4</maxWeakCount>
      <stageThreshold>-1.9937950372695923e+000</stageThreshold>
      <weakClassifiers>
        <_>
          <internalNodes>
            0 -1 22 -17409 -21505 -21829 -21761 -16449 -16385 -17477
            -21589</internalNodes>
          <leafValues>
            -8.9383143186569214e-001 8.4077906608581543e-001</leafValues></_>
        <_>
          <internalNodes>
            0 -1 128 -1069482276 -715784193 -16842753 -1 -1 -1 -1 -1</internalNodes>
          <leafValues>
            -8.1331312656402588e-001 5.6860119104385376e-001</leafValues></_>
        <_>
          <internalNodes>
            0 -1 55 593437219 -1073758209 23011875 -1 -1 -4097 -1025 -1</internalNodes>
          <leafValues>
            -7.1283823251724243e-001 5.3050398826599121e-001</leafValues></_>
        <_>
          <internalNodes>
            0 -1 19 -599329280 -83951874 -17105409 -33 1426384724
            -262145 -655489 -1</internalNodes>
          <leafValues>
            -6.4458686113357544e-001 4.2618769407272339e-001</leafValues></_></weakClassifiers></_>
    <!-- stage 1 -->
    <_>
      <maxWeakCount>6</maxWeakCount>
      <stageThreshold>-2.5517261028289795e+000</stageThreshold>
      <weakClassifiers>
        <_>
          <internalNodes>
            0 -1 22 -17409 -16385 -21829 -21761 -16385 -1 -17477 -21569</internalNodes>
          <leafValues>
            -8.7773722410202026e-001 6.8045330047607422e-001</leafValues></_>
        <_>
          <internalNodes>
            0 -1 67 -17 -18 -3145778 -1052978 -17 -18 -50 -1119542</internalNodes>
          <leafValues>
            -7.2289377450942993e-001 5.5565345287322998e-001</leafValues></_>
        <_>
          <internalNodes>
            0 -1 6 -218955786 -252248065 -1 -1 -185270284 -185073665 -1
            -1</internalNodes>
          <leafValues>
            -6.4459514617919922e-001 4.8271349072456360e-001</leafValues></_>
        <_>
          <internalNodes>
            0 -1 92 1660879407 -2097153 -402657281 -4097 612302975
            -32769 587155199 -1</internalNodes>
          <leafValues>
            -6.0645413398742676e-001 4.3125531077384949e-001</leafValues></_>
        <_>
          <internalNodes>
            0 -1 4 -353177614 -218169345 -589825 -1 5287935 -84475905
            -524289 -1</internalNodes>
          <leafValues>
            -3.9719894528388977e-001 5.4947292804718018e-001</leafValues></_>
        <_>
          <internalNodes>
            0 -1 114 -13634400 -2147441664 -789199 -81395920 -13633616
            -1188956896 -134220303 -9</internalNodes>
          <leafValues>
            -4.3015554547309875e-001 4.5396566390991211e-001</leafValues></_></weakClassifiers></_>
    <!-- stage 2 -->
    <_>
      <maxWeakCount>7</maxWeakCount>
      <stageThreshold>-2.1388235092163086e+000</stageThreshold>
      <weakClassifiers>
        <_>
          <internalNodes>
            0 -1 35 -1 -1 -21569 -21505 -16385 -1 -21829 -21569</internalNodes>
          <leafValues>
            -7.9878509044647217e-001 7.3123359680175781e-001</leafValues></_>
        <_>
          <internalNodes>
            0 -1 39 -21569 -16385 -67130693 -1140872533 -16449 -1 -17477
            -21589</internalNodes>
          <leafValues>
            -7.2910940647125244e-001 5.4341953992843628e-001</leafValues></_>
        <_>
          <internalNodes>
            0 -1 126 -319881532 -1058209804 -1 -1 -11 -1 -1 -1</internalNodes>
          <leafValues>
            -6.9018352031707764e-001 4.5020163059234619e-001</leafValues></_>
        <_>
          <internalNodes>
            0 -1 63 -587543330 -587313921 -17105153 -536879105
            -936326916 -855717633 -289734913 -1</internalNodes>
          <leafValues>
            -4.3538680672645569e-001 5.8532530069351196e-001</leafValues></_>
        <_>
          <internalNodes>
            0 -1 43 2013262651 62633778 -134217729 -1073872897
            2147483647 1073709055 -1 -1025</internalNodes>
          <leafValues>
            -4.3653866648674011e-001 4.8407781124114990e-001</leafValues></_>
        <_>
          <internalNodes>
            0 -1 48 -50334668 1966421301 -8193 -33554433 -2571 -33685513
            -1 -1</internalNodes>
          <leafValues>
            -3.2787853479385376e-001 5.6806057691574097e-001</leafValues></_>
        <_>
          <internalNodes>
            0 -1 110 -654322448 -788533040 -184585008 1349841140
            -150995716 -252514064 -117442376 -1325666053</internalNodes>
          <leafValues>
            -4.3424910306930542e-001 3.8311949372291565e-001</leafValues></_></weakClassifiers></_>
    <!-- stage 3 -->
    <_>
      <maxWeakCount>8</maxWeakCount>
      <stageThreshold>-2.5074284076690674e+000</stageThreshold>
      <weakClassifiers>
        <_>
          <internalNodes>
            0 -1 88 -1 -1 -1 -1 -45057 -32769 -64001 -36865</internalNodes>
          <leafValues>
            -8.1521207094192505e-001 5.3012329339981079e-001</leafValues></_>
        <_>
          <internalNodes>
            0 -1 52 -17409 -20481 -21829 -21761 -17473 -1 -17749 -21846</internalNodes>
          <leafValues>
            -7.2617739439010620e-001 4.3038395047187805e-001</leafValues></_>
        <_>
          <internalNodes>
            0 -1 42 -45812464 -2 -1 -1 -42469377 -1 -1 -1</internalNodes>
          <leafValues>
            -6.9042974710464478e-001 3.7392309308052063e-001</leafValues></_>
        <_>
          <internalNodes>
            0 -1 84 -60490252 -603918608 -276234244 -327682 -42607275
            -34209795 -47907532 -1</internalNodes>
          <leafValues>
            -5.7947188615798950e-001 4.1977375745773315e-001</leafValues></_>
        <_>
          <internalNodes>
            0 -1 77 788475703 2147434367 -1 -1 -16385 -16385 -1 -1</internalNodes>
          <leafValues>
            -3.6120632290840149e-001 5.9420502185821533e-001</leafValues></_>
        <_>
          <internalNodes>
            0 -1 56 804204327 805257215 -16385 -1 2147448831 2146435071
            -1 -1</internalNodes>
          <leafValues>
            -5.3530687093734741e-001 3.6122080683708191e-001</leafValues></_>
        <_>
          <internalNodes>
            0 -1 26 -85786630 -1901838 -496960782 -6102286 -228527504
            -252644750 -264178702 -202116877</internalNodes>
          <leafValues>
            -4.6341595053672791e-001 3.9516335725784302e-001</leafValues></_>
        <_>
          <internalNodes>
            0 -1 138 -13633630 35844896 -405277392 -788466272 -138416158
            -2050556457 -134219824 -67110958</internalNodes>
          <leafValues>
            -3.9980667829513550e-001 3.7574329972267151e-001</leafValues></_></weakClassifiers></_>
    <!-- stage 4 -->
    <_>
      <maxWeakCount>9</maxWeakCount>
      <stageThreshold>-2.5285525321960449e+000</stageThreshold>
      <weakClassifiers>
        <_>
          <internalNodes>
            0 -1 17 -1 -1 -20545 -21829 -1 -1 -16449 -16449</internalNodes>
          <leafValues>
            -7.4936735630035400e-001 5.3504556417465210e-001</leafValues></_>
        <_>
          <internalNodes>
            0 -1 43 -1 1002175419 -1 -1 -1 -1 -1 -1</internalNodes>
          <leafValues>
            -5.2140545845031738e-001 6.5705072879791260e-001</leafValues></_>
        <_>
          <internalNodes>
            0 -1 105 -791609346 -570425345 -202178561 -1 -801047052
            -587399169 -135004161 -1</internalNodes>
          <leafValues>
            -6.0906660556793213e-001 4.4772675633430481e-001</leafValues></_>
        <_>
          <internalNodes>
            0 -1 46 -19936050 -61729 -352401154 -218104065 1078215748
            -94415009 1078248670 -1</internalNodes>
          <leafValues>
            -4.6883350610733032e-001 5.0258105993270874e-001</leafValues></_>
        <_>
          <internalNodes>
            0 -1 101 -2271 -221 -9 -1048797 -91 -1048593 -607 -1588224</internalNodes>
          <leafValues>
            -4.5660969614982605e-001 4.4777843356132507e-001</leafValues></_>
        <_>
          <internalNodes>
            0 -1 122 -14155984 -66388080 -38797868 -1051212 -1077936207
            -1079771227 -1648372304 -9040</internalNodes>
          <leafValues>
            -3.7930339574813843e-001 4.5686501264572144e-001</leafValues></_>
        <_>
          <internalNodes>
            0 -1 71 -922951684 -50541060 -466948 -205316 -2072982288
            -1997480708 -1394553604 -805321251</internalNodes>
          <leafValues>
            -3.9995557069778442e-001 4.0733337402343750e-001</leafValues></_>
        <_>
          <internalNodes>
            0 -1 69 -1557404894 44229538 2006316849 -134219787 939505427
            49805239 2008544115 -134219777</internalNodes>
          <leafValues>
            -5.2075898647308350e-001 2.8766334056854248e-001</leafValues></_>
        <_>
          <internalNodes>
            0 -1 86 -249 1059028791 -129 843054975 -16777347 -129 -1
            -67108865</internalNodes>
          <leafValues>
            -3.1621372699737549e-001 4.7387567162513733e-001</leafValues></_></weakClassifiers></_>
    <!-- stage 5 -->
    <_>
      <maxWeakCount>9</maxWeakCount>
      <stageThreshold>-2.1803677082061768e+000</stageThreshold>
      <weakClassifiers>
        <_>
          <internalNodes>
            0 -1 65 -387261185 -1 -1 -1 -1 -1 -1 -1</internalNodes>
          <leafValues>
            -7.3245298862457275e-001 4.6663001179695129e-001</leafValues></_>
        <_>
          <internalNodes>
            0 -1 40 -21569 -20481 -21573 -20481 -16385 -16385 -17477
            -16401</internalNodes>
          <leafValues>
            -6.8487966060638428e-001 4.3958559632301331e-001</leafValues></_>
        <_>
          <internalNodes>
            0 -1 11 -1 -257 -285220610 -520101638 -129 -129 -15105
            -721436417</internalNodes>
          <leafValues>
            -4.8370292782783508e-001 5.1260352134704590e-001</leafValues></_>
        <_>
          <internalNodes>
            0 -1 134 -118959920 -655566596 -4390915 -50528292 -85411624
            -285544712 -91686264 -2004320120</internalNodes>
          <leafValues>
            -5.8184862136840820e-001 3.7489932775497437e-001</leafValues></_>
        <_>
          <internalNodes>
            0 -1 91 1330642767 268435455 -1 -1 1333726990 2147483647 -1
            -1</internalNodes>
          <leafValues>
            -5.2199822664260864e-001 3.8763618469238281e-001</leafValues></_>
        <_>
          <internalNodes>
            0 -1 85 -1307560080 -67485705 -434177 -1073790977 -8716365
            -1 -4472901 -1078252869</internalNodes>
          <leafValues>
            -4.4134265184402466e-001 4.1654404997825623e-001</leafValues></_>
        <_>
          <internalNodes>
            0 -1 5 -487920094 -83886081 -65 -1 1417103184 2013265919 -1
            -1</internalNodes>
          <leafValues>
            -5.0502020120620728e-001 3.4076493978500366e-001</leafValues></_>
        <_>
          <internalNodes>
            0 -1 131 -7602256 -1996448768 -536914575 -579480240 -4456517
            -63899344 -537397771 -8719</internalNodes>
          <leafValues>
            -4.3074157834053040e-001 3.8469713926315308e-001</leafValues></_>
        <_>
          <internalNodes>
            0 -1 83 -46858316 -201017852 -5308417 -39010403 -13238923
            -47136972 -131139 -1123172561</internalNodes>
          <leafValues>
            -3.6669206619262695e-001 3.9908620715141296e-001</leafValues></_></weakClassifiers></_>
    <!-- stage 6 -->
    <_>
      <maxWeakCount>9</maxWeakCount>
      <stageThreshold>-2.1102318763732910e+000</stageThreshold>
      <weakClassifiers>
        <_>
          <internalNodes>
            0 -1 3 -268439569 -1 -1 -1 1342164991 -4097 -1 -1</internalNodes>
          <leafValues>
            -7.1048665046691895e-001 5.2566581964492798e-001</leafValues></_>
        <_>
          <internalNodes>
            0 -1 38 -587211265 -587334145 -570425345 -587333633 -1
            -50332161 -1 -922746881</internalNodes>
          <leafValues>
            -5.7841432094573975e-001 4.9961432814598083e-001</leafValues></_>
        <_>
          <internalNodes>
            0 -1 108 -1 -1 -80 -100663297 -69 -352321537 -67110232
            -117702661</internalNodes>
          <leafValues>
            -4.1541907191276550e-001 5.9991598129272461e-001</leafValues></_>
        <_>
          <internalNodes>
            0 -1 8 788475695 -1 -268455937 -1 1073692479 -1 -1 -1</internalNodes>
          <leafValues>
            -6.3249272108078003e-001 3.6058920621871948e-001</leafValues></_>
        <_>
          <internalNodes>
            0 -1 59 -1 -20481 187371167 532613151 -890256129 -1610939137
            178194655 465502431</internalNodes>
          <leafValues>
            -4.7126510739326477e-001 4.3509820103645325e-001</leafValues></_>
        <_>
          <internalNodes>
            0 -1 106 -218111345 -218107905 -1058346257 -251658241
            1884758530 1920956247 -218169345 -201326593</internalNodes>
          <leafValues>
            -4.1625416278839111e-001 3.8547021150588989e-001</leafValues></_>
        <_>
          <internalNodes>
            0 -1 81 -1 -856758322 -302003040 -324993824 -1 -857276425
            -973651968 -705432334</internalNodes>
          <leafValues>
            -4.2989456653594971e-001 3.6518564820289612e-001</leafValues></_>
        <_>
          <internalNodes>
            0 -1 97 -2142240524 -16800513 536690685 -24321 -1074022480
            -67125251 -1080082501 -1073807190</internalNodes>
          <leafValues>
            -3.8317120075225830e-001 4.0599182248115540e-001</leafValues></_>
        <_>
          <internalNodes>
            0 -1 33 -67108865 -67109957 -1 -1550058582 -1 -33554433 -65
            859832071</internalNodes>
          <leafValues>
            -4.2864772677421570e-001 3.4292268753051758e-001</leafValues></_></weakClassifiers></_>
    <!-- stage 7 -->
    <_>
      <maxWeakCount>11</maxWeakCount>
      <stageThreshold>-2.2173504829406738e+000</stageThreshold>
      <weakClassifiers>
        <_>
          <internalNodes>
            0 -1 76 -193 2139094847 -1 -8388737 -1 -1 -1 -1</internalNodes>
          <leafValues>
            -6.8471628427505493e-001 5.4818511009216309e-001</leafValues></_>
        <_>
          <internalNodes>
            0 -1 92 -4097 -1 -1 -1 1962885375 -1 -32769 -1</internalNodes>
          <leafValues>
            -5.4456251859664917e-001 5.3356450796127319e-001</leafValues></_>
        <_>
          <internalNodes>
            0 -1 10 -1 -1281 -16847106 -16850190 -1 -2057 -527617
            -528137</internalNodes>
          <leafValues>
            -4.5748829841613770e-001 5.5051857233047485e-001</leafValues></_>
        <_>
          <internalNodes>
            0 -1 111 -513 -572522529 1574919567 219151695 -1 -171966529
            254782219 185596847</internalNodes>
          <leafValues>
            -4.6457019448280334e-001 4.7358110547065735e-001</leafValues></_>
        <_>
          <internalNodes>
            0 -1 7 -1 -1 -1 804257791 -1 2147483583 -1 2147483647</internalNodes>
          <leafValues>
            -4.5904844999313354e-001 4.2726132273674011e-001</leafValues></_>
        <_>
          <internalNodes>
            0 -1 20 -16777473 -1 -501022977 537067519 -59048324
            -26026121 -126812162 -234684417</internalNodes>
          <leafValues>
            -3.6955907940864563e-001 4.5302000641822815e-001</leafValues></_>
        <_>
          <internalNodes>
            0 -1 51 -193 -1 -1884295377 -1343225857 -193 -1 791621391
            791674751</internalNodes>
          <leafValues>
            -5.3171485662460327e-001 3.0594784021377563e-001</leafValues></_>
        <_>
          <internalNodes>
            0 -1 112 -1101 -1023148141 -201329680 -207355918 -72354893
            -1826374877 -134220877 -138676237</internalNodes>
          <leafValues>
            -3.4146291017532349e-001 3.9166018366813660e-001</leafValues></_>
        <_>
          <internalNodes>
            0 -1 53 -185273614 -33554433 1078239776 -184553489
            -134742017 -1 2001059635 -548405249</internalNodes>
          <leafValues>
            -4.8695650696754456e-001 2.5431928038597107e-001</leafValues></_>
        <_>
          <internalNodes>
            0 -1 82 -1997496580 -553873923 -537067523 -1610867201
            -1459839752 -1090740739 -1076051971 -1073803777</internalNodes>
          <leafValues>
            -3.1752598285675049e-001 3.6820137500762939e-001</leafValues></_>
        <_>
          <internalNodes>
            0 -1 27 -16778502 -354426114 -3333 -286266641 -83903744
            147587590 -2098429 1330639439</internalNodes>
          <leafValues>
            -4.5288848876953125e-001 2.5891044735908508e-001</leafValues></_></weakClassifiers></_>
    <!-- stage 8 -->
    <_>
      <maxWeakCount>12</maxWeakCount>
      <stageThreshold>-2.3067214488983154e+000</stageThreshold>
      <weakClassifiers>
        <_>
          <internalNodes>
            0 -1 2 -268439553 -1 -1 -1 268431359 -1 1342177279 -1</internalNodes>
          <leafValues>
            -6.8757247924804688e-001 4.7900515794754028e-001</leafValues></_>
        <_>
          <internalNodes>
            0 -1 135 -135268608 -453574665 -1 -1 -1 -1 -1 -1</internalNodes>
          <leafValues>
            -6.2064057588577271e-001 3.7891373038291931e-001</leafValues></_>
        <_>
          <internalNodes>
            0 -1 44 -213912813 858993459 -33557001 -134217729 -1 -1 -1
            -1</internalNodes>
          <leafValues>
            -4.5242044329643250e-001 4.7355759143829346e-001</leafValues></_>
        <_>
          <internalNodes>
            0 -1 64 -16855297 -16888065 -621093121 1914896127 -16855330
            -25276833 -16842753 -12910597</internalNodes>
          <leafValues>
            -3.8202798366546631e-001 4.9879467487335205e-001</leafValues></_>
        <_>
          <internalNodes>
            0 -1 50 -1 -135185 -2 -21778 -81 -1 -17494 -21846</internalNodes>
          <leafValues>
            -4.0831407904624939e-001 4.4075056910514832e-001</leafValues></_>
        <_>
          <internalNodes>
            0 -1 61 -86310913 -201667845 -4097 -67435834 -1154285569
            -70094889 -1155301409 991625799</internalNodes>
          <leafValues>
            -4.1987645626068115e-001 3.9602991938591003e-001</leafValues></_>
        <_>
          <internalNodes>
            0 -1 136 -83886114 -287375377 -589832 -84213766 -44
            -67112961 -134221104 -84213774</internalNodes>
          <leafValues>
            -4.0992486476898193e-001 3.4633907675743103e-001</leafValues></_>
        <_>
          <internalNodes>
            0 -1 109 -13041708 -48220304 -4390915 -2326564 -13566032
            -6275787 -13565953 -1087750209</internalNodes>
          <leafValues>
            -3.4495502710342407e-001 3.9236918091773987e-001</leafValues></_>
        <_>
          <internalNodes>
            0 -1 90 -352327678 -1426067457 -1023415638 -352325905 -35019
            -17 -134252768 -6234</internalNodes>
          <leafValues>
            -4.7273245453834534e-001 2.5014960765838623e-001</leafValues></_>
        <_>
          <internalNodes>
            0 -1 56 804203829 801079295 -8193 -131073 -17301505 -1
            -1073742337 -17</internalNodes>
          <leafValues>
            -3.5700649023056030e-001 3.2876724004745483e-001</leafValues></_>
        <_>
          <internalNodes>
            0 -1 12 -1 -1 -286340594 -520101138 -2227 -641 -808464564
            -134230193</internalNodes>
          <leafValues>
            -3.1734091043472290e-001 3.5515883564949036e-001</leafValues></_>
        <_>
          <internalNodes>
            0 -1 37 -257888016 -260013840 -37882369 -582646572 -17769232
            -200587 -34275907 -117411772</internalNodes>
          <leafValues>
            -4.0541967749595642e-001 2.7103799581527710e-001</leafValues></_></weakClassifiers></_>
    <!-- stage 9 -->
    <_>
      <maxWeakCount>14</maxWeakCount>
      <stageThreshold>-2.3829901218414307e+000</stageThreshold>
      <weakClassifiers>
        <_>
          <internalNodes>
            0 -1 116 -795179 -1 -1 -1 -1 -1 -1 -1</internalNodes>
          <leafValues>
            -6.9085341691970825e-001 3.9942085742950439e-001</leafValues></_>
        <_>
          <internalNodes>
            0 -1 24 -1 -16842754 -2 -218169602 -1 -1 -1 -2820</internalNodes>
          <leafValues>
            -5.0489157438278198e-001 4.6080982685089111e-001</leafValues></_>
        <_>
          <internalNodes>
            0 -1 104 2147438591 -1 -1 -1 2147421951 2147450879 -1 -1</internalNodes>
          <leafValues>
            -5.3072685003280640e-001 3.8428461551666260e-001</leafValues></_>
        <_>
          <internalNodes>
            0 -1 121 -13 -572522511 -134221327 -33554443 -69 -65
            -134220815 -1</internalNodes>
          <leafValues>
            -3.2828867435455322e-001 5.7045364379882813e-001</leafValues></_>
        <_>
          <internalNodes>
            0 -1 119 -10767 -572582823 -14713345 1576993049 -2631 -51779
            -1067077 137297963</internalNodes>
          <leafValues>
            -4.4522407650947571e-001 3.6321526765823364e-001</leafValues></_>
        <_>
          <internalNodes>
            0 -1 16 2144337919 267382767 2147483647 261074927 2139095039
            2147482623 2147483647 2139095039</internalNodes>
          <leafValues>
            -5.6226783990859985e-001 2.7077758312225342e-001</leafValues></_>
        <_>
          <internalNodes>
            0 -1 58 -22352134 -1078550 -824119556 -1110514 67141792
            -1946157020 1145323760 -536887057</internalNodes>
          <leafValues>
            -3.7236225605010986e-001 3.5962995886802673e-001</leafValues></_>
        <_>
          <internalNodes>
            0 -1 29 -838144306 -28700946 -91563297 -4385 1145324612
            1145062476 -33235377 -8430001</internalNodes>
          <leafValues>
            -3.9888742566108704e-001 3.0576160550117493e-001</leafValues></_>
        <_>
          <internalNodes>
            0 -1 70 -240127072 -1058887994 -176687856 -705825283
            -134744141 83150815 2004350919 -671090945</internalNodes>
          <leafValues>
            -3.4366321563720703e-001 3.4070006012916565e-001</leafValues></_>
        <_>
          <internalNodes>
            0 -1 95 -28295180 -33801764 2136743933 -213025 -1091780676
            -213063 -1346617351 -1077986657</internalNodes>
          <leafValues>
            -2.9804420471191406e-001 3.6921143531799316e-001</leafValues></_>
        <_>
          <internalNodes>
            0 -1 1 -1896878097 -268501025 -276826113 -1 217051135
            -805306369 1174370295 -805308425</internalNodes>
          <leafValues>
            -2.7054360508918762e-001 4.0131765604019165e-001</leafValues></_>
        <_>
          <internalNodes>
            0 -1 102 1079041758 -992608257 1915911163 -268959745
            -791612172 -587726849 -202113025 -262145</internalNodes>
          <leafValues>
            -4.7711160778999329e-001 2.2029617428779602e-001</leafValues></_>
        <_>
          <internalNodes>
            0 -1 62 -571154476 -2010054657 -2139819 149970896 -992949184
            -857538561 -8996 -37</internalNodes>
          <leafValues>
            -4.1601651906967163e-001 2.3844638466835022e-001</leafValues></_>
        <_>
          <internalNodes>
            0 -1 54 934739968 939471675 1073626392 2147434303 1073724863
            1069547519 -1074020869 -769</internalNodes>
          <leafValues>
            -4.9409604072570801e-001 2.0426601171493530e-001</leafValues></_></weakClassifiers></_>
    <!-- stage 10 -->
    <_>
      <maxWeakCount>14</maxWeakCount>
      <stageThreshold>-2.2421696186065674e+000</stageThreshold>
      <weakClassifiers>
        <_>
          <internalNodes>
            0 -1 124 -1 -1 -1 -1 -171 -33554563 -3 -1</internalNodes>
          <leafValues>
            -6.7615789175033569e-001 4.2927867174148560e-001</leafValues></_>
        <_>
          <internalNodes>
            0 -1 30 -83890433 -4353 -218961153 -218370305 -294138113
            -12289 -17301505 -1</internalNodes>
          <leafValues>
            -4.3111419677734375e-001 5.4598659276962280e-001</leafValues></_>
        <_>
          <internalNodes>
            0 -1 66 -16782686 -16777474 -1 -16777474 -30 -1 -14
            -16777218</internalNodes>
          <leafValues>
            -5.6004667282104492e-001 3.5780563950538635e-001</leafValues></_>
        <_>
          <internalNodes>
            0 -1 57 859779840 -81 868159761 -65 1069547455 -1 2147480499
            -1</internalNodes>
          <leafValues>
            -5.6296724081039429e-001 3.0206525325775146e-001</leafValues></_>
        <_>
          <internalNodes>
            0 -1 120 -1356666704 -5057360 -272629763 -515 788724658
            -12586191 790885887 -1</internalNodes>
          <leafValues>
            -4.5401701331138611e-001 3.6696916818618774e-001</leafValues></_>
        <_>
          <internalNodes>
            0 -1 103 -1 -67108865 1610612735 1073741823 -1 -1 2147450751
            2147483647</internalNodes>
          <leafValues>
            -4.2050305008888245e-001 3.3727091550827026e-001</leafValues></_>
        <_>
          <internalNodes>
            0 -1 94 -16777600 43008 -4177 -1121058897 -266321 536915712
            -269504597 185330443</internalNodes>
          <leafValues>
            -4.0398415923118591e-001 3.3301442861557007e-001</leafValues></_>
        <_>
          <internalNodes>
            0 -1 9 -353374514 -487067649 -16842833 -4097 -142649532
            2011135743 -137 -4097</internalNodes>
          <leafValues>
            -4.2006221413612366e-001 2.9347336292266846e-001</leafValues></_>
        <_>
          <internalNodes>
            0 -1 117 1659830527 1929317119 578438911 585878271
            1937720910 -76595329 -134217729 -134217729</internalNodes>
          <leafValues>
            -4.6781677007675171e-001 2.4841208755970001e-001</leafValues></_>
        <_>
          <internalNodes>
            0 -1 78 801059639 -312321 938721279 -139267 -1073758209
            -83457 -1076183041 -16385</internalNodes>
          <leafValues>
            -2.9690387845039368e-001 3.7962093949317932e-001</leafValues></_>
        <_>
          <internalNodes>
            0 -1 45 -16515093 -75302334 -150798486 -100470142 -100466861
            -232721854 1896018755 -217845566</internalNodes>
          <leafValues>
            -3.6625534296035767e-001 2.9876354336738586e-001</leafValues></_>
        <_>
          <internalNodes>
            0 -1 85 -131006608 -66313 -8560641 -57347 -67895333 -1
            -4522053 -1079038021</internalNodes>
          <leafValues>
            -2.3412618041038513e-001 4.3057265877723694e-001</leafValues></_>
        <_>
          <internalNodes>
            0 -1 80 -67116381 15000550 -147660512 -707817777 -998837353
            14792675 1970796391 -708444177</internalNodes>
          <leafValues>
            -3.1467217206954956e-001 3.0368626117706299e-001</leafValues></_>
        <_>
          <internalNodes>
            0 -1 96 -52652836 -33649411 -2122753 -2159363 -81923 -20484
            -81921 -1347474933</internalNodes>
          <leafValues>
            -2.2309868037700653e-001 4.1689100861549377e-001</leafValues></_></weakClassifiers></_>
    <!-- stage 11 -->
    <_>
      <maxWeakCount>15</maxWeakCount>
      <stageThreshold>-2.3033664226531982e+000</stageThreshold>
      <weakClassifiers>
        <_>
          <internalNodes>
            0 -1 32 -65537 -17891329 -1 -65537 -1 -65537 -1 -1</internalNodes>
          <leafValues>
            -6.8767970800399780e-001 3.6387598514556885e-001</leafValues></_>
        <_>
          <internalNodes>
            0 -1 141 -4196557 -201326593 -2185 -1 -1 -1 -1 -1</internalNodes>
          <leafValues>
            -4.1382414102554321e-001 5.9576553106307983e-001</leafValues></_>
        <_>
          <internalNodes>
            0 -1 41 -1 -28929 2147483647 -1 -1073758277 -53313
            1073725439 1073688575</internalNodes>
          <leafValues>
            -4.4933360815048218e-001 3.8916566967964172e-001</leafValues></_>
        <_>
          <internalNodes>
            0 -1 137 -536879153 -842019633 -808466482 -842019633
            -808465272 -925907764 -1009793920 -909128497</internalNodes>
          <leafValues>
            -3.9459171891212463e-001 4.1252526640892029e-001</leafValues></_>
        <_>
          <internalNodes>
            0 -1 123 -225 2134343487 -142606465 842268543 -129 -8388737
            -1 -92274689</internalNodes>
          <leafValues>
            -2.9202914237976074e-001 5.1250559091567993e-001</leafValues></_>
        <_>
          <internalNodes>
            0 -1 63 -587281190 -570471202 -84213761 1375460863
            -664220584 -923088642 -21299457 -262145</internalNodes>
          <leafValues>
            -3.6202067136764526e-001 3.7716570496559143e-001</leafValues></_>
        <_>
          <internalNodes>
            0 -1 68 -17 -570425345 12853760 -1059199131 -17 -808456193
            -136839353 -807407665</internalNodes>
          <leafValues>
            -2.7515447139739990e-001 4.7058498859405518e-001</leafValues></_>
        <_>
          <internalNodes>
            0 -1 34 -2118657 -152577 -2774277 -237524293 -2244673
            -2228225 -17477 -67130453</internalNodes>
          <leafValues>
            -4.2075884342193604e-001 2.8674617409706116e-001</leafValues></_>
        <_>
          <internalNodes>
            0 -1 98 -598147084 -16973828 -3 -196610 -15 -212993 -4
            -1431830528</internalNodes>
          <leafValues>
            -4.2639279365539551e-001 2.5264793634414673e-001</leafValues></_>
        <_>
          <internalNodes>
            0 -1 107 -219158866 -790700113 -2132783922 -1070792737
            -210275580 1884647765 -212795441 -263324673</internalNodes>
          <leafValues>
            -3.8118007779121399e-001 2.8150147199630737e-001</leafValues></_>
        <_>
          <internalNodes>
            0 -1 74 -35652267 1566441429 -755 -1917845585 -33555011
            -102891521 -1087373558 -1422917717</internalNodes>
          <leafValues>
            -2.7795463800430298e-001 3.7571674585342407e-001</leafValues></_>
        <_>
          <internalNodes>
            0 -1 13 -1048577 -4097 -1910347522 -17898754 -9504897 -2049
            1145074291 -134221577</internalNodes>
          <leafValues>
            -3.5282975435256958e-001 2.7914381027221680e-001</leafValues></_>
        <_>
          <internalNodes>
            0 -1 125 -721432364 -184623908 -50331651 -50332065
            -117458704 -386204420 -352474488 -1997538561</internalNodes>
          <leafValues>
            -3.1560817360877991e-001 3.1001454591751099e-001</leafValues></_>
        <_>
          <internalNodes>
            0 -1 60 -824778792 -17498114 -602155 -537010211 -2072982288
            -118207044 -571174955 -805354025</internalNodes>
          <leafValues>
            -3.0728614330291748e-001 3.1066417694091797e-001</leafValues></_>
        <_>
          <internalNodes>
            0 -1 87 -288362713 -1359484729 -1073758289 -285218163 -201
            -1046 -134482141 -286268414</internalNodes>
          <leafValues>
            -3.2237851619720459e-001 2.7161747217178345e-001</leafValues></_></weakClassifiers></_>
    <!-- stage 12 -->
    <_>
      <maxWeakCount>17</maxWeakCount>
      <stageThreshold>-2.3051648139953613e+000</stageThreshold>
      <weakClassifiers>
        <_>
          <internalNodes>
            0 -1 47 -209 2134900543 -1 -8388609 -1 -1 -1 -1</internalNodes>
          <leafValues>
            -7.0183396339416504e-001 2.6585590839385986e-001</leafValues></_>
        <_>
          <internalNodes>
            0 -1 140 -1 -1 -1 -1 -3 -268435457 -2060 -65538</internalNodes>
          <leafValues>
            -4.5585212111473083e-001 4.6404457092285156e-001</leafValues></_>
        <_>
          <internalNodes>
            0 -1 43 -69 1002175410 -2097153 -1073742853 -1 -1 -1 -1</internalNodes>
          <leafValues>
            -4.4996982812881470e-001 3.7717416882514954e-001</leafValues></_>
        <_>
          <internalNodes>
            0 -1 130 -1050625 -540019281 -542113810 495976431
            -1095763286 -2003840855 713734826 176945066</internalNodes>
          <leafValues>
            -4.6155551075935364e-001 3.4488114714622498e-001</leafValues></_>
        <_>
          <internalNodes>
            0 -1 15 -257 -7442 -486870273 -251666177 -9439361 -48009
            -134744321 -150998785</internalNodes>
          <leafValues>
            -3.2115945219993591e-001 4.6294289827346802e-001</leafValues></_>
        <_>
          <internalNodes>
            0 -1 18 -1 -4097 -135169 -20754 -67239937 -1 -32961 -53490</internalNodes>
          <leafValues>
            -3.6964389681816101e-001 3.6256176233291626e-001</leafValues></_>
        <_>
          <internalNodes>
            0 -1 73 -88412417 -84226817 -1 -13057 -1439520069
            -1141198849 -1422742597 733676091</internalNodes>
          <leafValues>
            -3.4224697947502136e-001 3.4102544188499451e-001</leafValues></_>
        <_>
          <internalNodes>
            0 -1 89 -386925376 -1069223988 -436207649 -867316243
            -788533008 1089597943 -1 -1</internalNodes>
          <leafValues>
            -5.0887292623519897e-001 2.3517949879169464e-001</leafValues></_>
        <_>
          <internalNodes>
            0 -1 115 -1271991248 -1936803144 -1073742347 -1343226369
            -1153450057 -1145045057 1002388283 -1346371909</internalNodes>
          <leafValues>
            -3.4459701180458069e-001 2.9231861233711243e-001</leafValues></_>
        <_>
          <internalNodes>
            0 -1 37 -262082348 -35852080 -62915073 -35794723 -340197968
            -1052492 -16909347 -83128299</internalNodes>
          <leafValues>
            -2.7406716346740723e-001 3.6648923158645630e-001</leafValues></_>
        <_>
          <internalNodes>
            0 -1 21 -268439637 -285544449 -268439697 -269496369 -207
            -268435457 -185 -65</internalNodes>
          <leafValues>
            -2.5935295224189758e-001 3.7829324603080750e-001</leafValues></_>
        <_>
          <internalNodes>
            0 -1 118 -121637808 -789577712 2057368760 -709029836
            -37816184 -121957327 -30753094 -1170525637</internalNodes>
          <leafValues>
            -2.9485929012298584e-001 3.1989830732345581e-001</leafValues></_>
        <_>
          <internalNodes>
            0 -1 23 1427502448 -261033806 -704654089 -704645633
            1413871479 -248119305 -33587969 -2049</internalNodes>
          <leafValues>
            -4.7734519839286804e-001 1.9557018578052521e-001</leafValues></_>
        <_>
          <internalNodes>
            0 -1 93 -84942326 2160177 -533798910 -1060115537 1347446295
            1081474935 -210372861 -238026769</internalNodes>
          <leafValues>
            -4.1562110185623169e-001 2.0912672579288483e-001</leafValues></_>
        <_>
          <internalNodes>
            0 -1 49 -33709381 -539128081 -169870593 -2118929 -2229333
            -135185 -19806 -68181334</internalNodes>
          <leafValues>
            -4.6406984329223633e-001 1.8551512062549591e-001</leafValues></_>
        <_>
          <internalNodes>
            0 -1 97 -789253900 -16777985 -513 -257 -16859215 -322
            -1073758273 -1073795413</internalNodes>
          <leafValues>
            -2.3736740648746490e-001 3.8023546338081360e-001</leafValues></_>
        <_>
          <internalNodes>
            0 -1 132 -268439565 -501025808 -135270064 -999229968
            1877999547 138526020 1440699729 -707275563</internalNodes>
          <leafValues>
            -3.4891802072525024e-001 2.3478747904300690e-001</leafValues></_></weakClassifiers></_>
    <!-- stage 13 -->
    <_>
      <maxWeakCount>17</maxWeakCount>
      <stageThreshold>-2.3232772350311279e+000</stageThreshold>
      <weakClassifiers>
        <_>
          <internalNodes>
            0 -1 31 -51446273 -1 -1 -1 -16777217 -1 -1 -1</internalNodes>
          <leafValues>
            -6.6841036081314087e-001 3.1074061989784241e-001</leafValues></_>
        <_>
          <internalNodes>
            0 -1 129 -792662290 -134742017 -488439809 -1 -1 -1 -1 -1</internalNodes>
          <leafValues>
            -5.7934081554412842e-001 3.0404534935951233e-001</leafValues></_>
        <_>
          <internalNodes>
            0 -1 133 -1049693 -1694237950 -134745807 -15468783
            -1079002197 -1895040222 -134220877 -2125</internalNodes>
          <leafValues>
            -3.9052471518516541e-001 4.4904738664627075e-001</leafValues></_>
        <_>
          <internalNodes>
            0 -1 28 -16792882 -83951026 -83893522 -218184978 -47282
            -8436649 -8388642 -1</internalNodes>
          <leafValues>
            -3.4660854935646057e-001 4.0384861826896667e-001</leafValues></_>
        <_>
          <internalNodes>
            0 -1 14 -299433985 -65537 -817434801 1341066766 1330969599
            -524289 1329614671 1342129999</internalNodes>
          <leafValues>
            -3.6571156978607178e-001 3.6704084277153015e-001</leafValues></_>
        <_>
          <internalNodes>
            0 -1 127 -2097253 -61665 -32769 2147426143 -1073763397
            -1073791057 2147483647 1073692447</internalNodes>
          <leafValues>
            -4.5769652724266052e-001 2.3766450583934784e-001</leafValues></_>
        <_>
          <internalNodes>
            0 -1 79 -286268502 -1426328577 -268441622 16052206 -2141
            -262145 -2141 -218103825</internalNodes>
          <leafValues>
            -4.5018965005874634e-001 2.6455241441726685e-001</leafValues></_>
        <_>
          <internalNodes>
            0 -1 100 -4305 -285217281 -268439633 -268435457 -203 -4229
            -4194545 -1</internalNodes>
          <leafValues>
            -2.7137345075607300e-001 4.2192628979682922e-001</leafValues></_>
        <_>
          <internalNodes>
            0 -1 75 -587276289 -16888065 -8462337 2138202111 -8593668
            -4293121 -65537 -1087738310</internalNodes>
          <leafValues>
            -2.5595772266387939e-001 3.9335590600967407e-001</leafValues></_>
        <_>
          <internalNodes>
            0 -1 25 -2 -487653394 2013265919 -269484033 -143261884
            1145356256 -8388785 1330641743</internalNodes>
          <leafValues>
            -3.8501474261283875e-001 2.5349774956703186e-001</leafValues></_>
        <_>
          <internalNodes>
            0 -1 36 -791614832 -167905281 -1068171435 -572653601 -540757
            -9409 -11010209 -33</internalNodes>
          <leafValues>
            -4.6146109700202942e-001 2.1321383118629456e-001</leafValues></_>
        <_>
          <internalNodes>
            0 -1 139 -37748957 -268435523 -805310673 -270532641 -4194373
            -1 -65 -268439569</internalNodes>
          <leafValues>
            -2.3844815790653229e-001 3.9251387119293213e-001</leafValues></_>
        <_>
          <internalNodes>
            0 -1 72 -6508552 -23024296 1603058653 -1882444485 -11224176
            -120321392 -2285795 252514063</internalNodes>
          <leafValues>
            -3.8485059142112732e-001 2.1124008297920227e-001</leafValues></_>
        <_>
          <internalNodes>
            0 -1 0 -1360007169 -286326786 -872415233 -1 66057983
            -268501009 1157060469 -973081099</internalNodes>
          <leafValues>
            -2.6168477535247803e-001 3.2455337047576904e-001</leafValues></_>
        <_>
          <internalNodes>
            0 -1 99 1474261975 2139095031 -538970145 1601175519
            -135322686 -145 1170604032 1161831118</internalNodes>
          <leafValues>
            -3.9981958270072937e-001 2.0332749187946320e-001</leafValues></_>
        <_>
          <internalNodes>
            0 -1 106 -353375602 1652502511 -2141009682 1627062271
            1936024079 1886879575 -77202449 1937760255</internalNodes>
          <leafValues>
            -3.8306811451911926e-001 2.1559773385524750e-001</leafValues></_>
        <_>
          <internalNodes>
            0 -1 113 137286868 -591397633 -571474435 -8705 -1623458307
            -1073758225 536706303 -1073800773</internalNodes>
          <leafValues>
            -2.6211306452751160e-001 3.0094820261001587e-001</leafValues></_></weakClassifiers></_></stages>
  <features>
    <_>
      <rect>
        0 1 2 3</rect></_>
    <_>
      <rect>
        0 1 3 3</rect></_>
    <_>
      <rect>
        0 1 4 3</rect></_>
    <_>
      <rect>
        0 1 5 3</rect></_>
    <_>
      <rect>
        0 2 5 4</rect></_>
    <_>
      <rect>
        0 12 3 2</rect></_>
    <_>
      <rect>
        0 12 5 3</rect></_>
    <_>
      <rect>
        1 11 4 1</rect></_>
    <_>
      <rect>
        1 12 5 1</rect></_>
    <_>
      <rect>
        1 13 2 1</rect></_>
    <_>
      <rect>
        1 16 3 1</rect></_>
    <_>
      <rect>
        1 16 3 3</rect></_>
    <_>
      <rect>
        1 16 4 3</rect></_>
    <_>
      <rect>
        1 17 3 1</rect></_>
    <_>
      <rect>
        1 19 4 1</rect></_>
    <_>
      <rect>
        1 21 3 1</rect></_>
    <_>
      <rect>
        2 9 3 3</rect></_>
    <_>
      <rect>
        3 8 4 3</rect></_>
    <_>
      <rect>
        3 9 4 2</rect></_>
    <_>
      <rect>
        3 11 2 4</rect></_>
    <_>
      <rect>
        3 21 2 2</rect></_>
    <_>
      <rect>
        4 7 2 1</rect></_>
    <_>
      <rect>
        4 8 4 3</rect></_>
    <_>
      <rect>
        4 11 2 4</rect></_>
    <_>
      <rect>
        4 16 1 1</rect></_>
    <_>
      <rect>
        4 17 4 1</rect></_>
    <_>
      <rect>
        4 18 2 1</rect></_>
    <_>
      <rect>
        4 18 4 2</rect></_>
    <_>
      <rect>
        4 19 1 1</rect></_>
    <_>
      <rect>
        4 20 2 1</rect></_>
    <_>
      <rect>
        4 22 2 1</rect></_>
    <_>
      <rect>
        5 0 2 6</rect></_>
    <_>
      <rect>
        5 6 1 2</rect></_>
    <_>
      <rect>
        5 7 2 4</rect></_>
    <_>
      <rect>
        5 8 3 3</rect></_>
    <_>
      <rect>
        5 8 4 3</rect></_>
    <_>
      <rect>
        5 9 3 5</rect></_>
    <_>
      <rect>
        5 10 1 1</rect></_>
    <_>
      <rect>
        5 10 2 1</rect></_>
    <_>
      <rect>
        5 10 3 2</rect></_>
    <_>
      <rect>
        5 10 4 2</rect></_>
    <_>
      <rect>
        5 11 1 1</rect></_>
    <_>
      <rect>
        5 12 1 3</rect></_>
    <_>
      <rect>
        5 12 2 1</rect></_>
    <_>
      <rect>
        5 13 2 1</rect></_>
    <_>
      <rect>
        5 18 1 1</rect></_>
    <_>
      <rect>
        5 20 1 1</rect></_>
    <_>
      <rect>
        6 1 5 3</rect></_>
    <_>
      <rect>
        6 2 5 4</rect></_>
    <_>
      <rect>
        6 6 3 4</rect></_>
    <_>
      <rect>
        6 7 3 3</rect></_>
    <_>
      <rect>
        6 7 5 4</rect></_>
    <_>
      <rect>
        6 8 3 3</rect></_>
    <_>
      <rect>
        6 9 3 4</rect></_>
    <_>
      <rect>
        6 12 1 1</rect></_>
    <_>
      <rect>
        6 12 3 1</rect></_>
    <_>
      <rect>
        6 12 4 1</rect></_>
    <_>
      <rect>
        6 13 1 1</rect></_>
    <_>
      <rect>
        6 17 1 1</rect></_>
    <_>
      <rect>
        6 18 1 2</rect></_>
    <_>
      <rect>
        6 18 2 1</rect></_>
    <_>
      <rect>
        6 19 1 1</rect></_>
    <_>
      <rect>
        6 19 2 3</rect></_>
    <_>
      <rect>
        6 20 1 2</rect></_>
    <_>
      <rect>
        6 23 1 1</rect></_>
    <_>
      <rect>
        7 0 1 6</rect></_>
    <_>
      <rect>
        7 2 2 7</rect></_>
    <_>
      <rect>
        7 10 2 1</rect></_>
    <_>
      <rect>
        7 11 2 5</rect></_>
    <_>
      <rect>
        7 13 1 1</rect></_>
    <_>
      <rect>
        7 14 1 1</rect></_>
    <_>
      <rect>
        7 18 1 1</rect></_>
    <_>
      <rect>
        7 18 2 1</rect></_>
    <_>
      <rect>
        7 19 1 1</rect></_>
    <_>
      <rect>
        7 19 4 1</rect></_>
    <_>
      <rect>
        7 24 1 1</rect></_>
    <_>
      <rect>
        8 1 4 3</rect></_>
    <_>
      <rect>
        8 2 2 2</rect></_>
    <_>
      <rect>
        8 3 1 1</rect></_>
    <_>
      <rect>
        8 11 1 1</rect></_>
    <_>
      <rect>
        8 13 1 1</rect></_>
    <_>
      <rect>
        8 16 4 4</rect></_>
    <_>
      <rect>
        8 18 1 1</rect></_>
    <_>
      <rect>
        8 18 2 1</rect></_>
    <_>
      <rect>
        8 19 2 3</rect></_>
    <_>
      <rect>
        8 20 1 1</rect></_>
    <_>
      <rect>
        9 1 4 3</rect></_>
    <_>
      <rect>
        9 10 1 1</rect></_>
    <_>
      <rect>
        9 10 2 2</rect></_>
    <_>
      <rect>
        9 10 4 5</rect></_>
    <_>
      <rect>
        9 11 1 1</rect></_>
    <_>
      <rect>
        9 11 3 2</rect></_>
    <_>
      <rect>
        9 12 2 1</rect></_>
    <_>
      <rect>
        9 13 1 1</rect></_>
    <_>
      <rect>
        9 17 2 1</rect></_>
    <_>
      <rect>
        9 18 1 1</rect></_>
    <_>
      <rect>
        9 19 1 1</rect></_>
    <_>
      <rect>
        9 20 1 1</rect></_>
    <_>
      <rect>
        9 24 1 1</rect></_>
    <_>
      <rect>
        10 5 2 6</rect></_>
    <_>
      <rect>
        10 7 2 1</rect></_>
    <_>
      <rect>
        10 8 1 2</rect></_>
    <_>
      <rect>
        10 11 2 4</rect></_>
    <_>
      <rect>
        10 11 3 1</rect></_>
    <_>
      <rect>
        10 12 2 1</rect></_>
    <_>
      <rect>
        10 12 2 3</rect></_>
    <_>
      <rect>
        10 13 1 1</rect></_>
    <_>
      <rect>
        10 14 1 1</rect></_>
    <_>
      <rect>
        10 16 3 1</rect></_>
    <_>
      <rect>
        10 18 1 1</rect></_>
    <_>
      <rect>
        10 18 2 1</rect></_>
    <_>
      <rect>
        10 19 2 1</rect></_>
    <_>
      <rect>
        10 19 3 2</rect></_>
    <_>
      <rect>
        10 20 1 1</rect></_>
    <_>
      <rect>
        10 20 2 2</rect></_>
    <_>
      <rect>
        10 22 1 1</rect></_>
    <_>
      <rect>
        11 0 1 6</rect></_>
    <_>
      <rect>
        11 13 1 1</rect></_>
    <_>
      <rect>
        11 18 1 1</rect></_>
    <_>
      <rect>
        11 19 1 1</rect></_>
    <_>
      <rect>
        11 20 1 2</rect></_>
    <_>
      <rect>
        11 22 2 1</rect></_>
    <_>
      <rect>
        11 23 1 1</rect></_>
    <_>
      <rect>
        12 1 3 3</rect></_>
    <_>
      <rect>
        12 6 2 2</rect></_>
    <_>
      <rect>
        12 10 2 1</rect></_>
    <_>
      <rect>
        12 10 2 4</rect></_>
    <_>
      <rect>
        12 11 1 1</rect></_>
    <_>
      <rect>
        12 12 1 3</rect></_>
    <_>
      <rect>
        12 13 1 2</rect></_>
    <_>
      <rect>
        12 19 1 1</rect></_>
    <_>
      <rect>
        12 20 1 2</rect></_>
    <_>
      <rect>
        12 20 2 2</rect></_>
    <_>
      <rect>
        12 21 1 1</rect></_>
    <_>
      <rect>
        13 10 1 1</rect></_>
    <_>
      <rect>
        13 12 2 2</rect></_>
    <_>
      <rect>
        13 16 1 1</rect></_>
    <_>
      <rect>
        13 18 1 1</rect></_>
    <_>
      <rect>
        13 20 1 1</rect></_>
    <_>
      <rect>
        14 12 2 1</rect></_>
    <_>
      <rect>
        14 16 1 1</rect></_>
    <_>
      <rect>
        15 13 1 1</rect></_></features></cascade>
</opencv_storage>
